digraph Tree {
node [shape=box, style="filled, rounded", color="black", fontname=helvetica] ;
edge [fontname=helvetica] ;
0 [label="petal length (cm) <= 2.45\ngini = 0.67\nsamples = 93\nvalue = [52, 52, 46]\nclass = setosa", fillcolor="#ffffff"] ;
1 [label="gini = 0.0\nsamples = 28\nvalue = [52, 0, 0]\nclass = setosa", fillcolor="#e58139"] ;
0 -> 1 [labeldistance=2.5, labelangle=45, headlabel="True"] ;
2 [label="petal width (cm) <= 1.65\ngini = 0.5\nsamples = 65\nvalue = [0, 52, 46]\nclass = versicolor", fillcolor="#e8fcf0"] ;
0 -> 2 [labeldistance=2.5, labelangle=-45, headlabel="False"] ;
3 [label="petal width (cm) <= 1.45\ngini = 0.04\nsamples = 34\nvalue = [0, 50, 1]\nclass = versicolor", fillcolor="#3de684"] ;
2 -> 3 ;
4 [label="gini = 0.0\nsamples = 26\nvalue = [0, 37, 0]\nclass = versicolor", fillcolor="#39e581"] ;
3 -> 4 ;
5 [label="sepal length (cm) <= 6.25\ngini = 0.13\nsamples = 8\nvalue = [0, 13, 1]\nclass = versicolor", fillcolor="#48e78b"] ;
3 -> 5 ;
6 [label="gini = 0.0\nsamples = 4\nvalue = [0, 8, 0]\nclass = versicolor", fillcolor="#39e581"] ;
5 -> 6 ;
7 [label="petal length (cm) <= 5.0\ngini = 0.28\nsamples = 4\nvalue = [0, 5, 1]\nclass = versicolor", fillcolor="#61ea9a"] ;
5 -> 7 ;
8 [label="gini = 0.0\nsamples = 3\nvalue = [0, 5, 0]\nclass = versicolor", fillcolor="#39e581"] ;
7 -> 8 ;
9 [label="gini = 0.0\nsamples = 1\nvalue = [0, 0, 1]\nclass = virginica", fillcolor="#8139e5"] ;
7 -> 9 ;
10 [label="petal width (cm) <= 1.85\ngini = 0.08\nsamples = 31\nvalue = [0, 2, 45]\nclass = virginica", fillcolor="#8742e6"] ;
2 -> 10 ;
11 [label="sepal width (cm) <= 3.1\ngini = 0.3\nsamples = 8\nvalue = [0, 2, 9]\nclass = virginica", fillcolor="#9d65eb"] ;
10 -> 11 ;
12 [label="sepal length (cm) <= 6.6\ngini = 0.18\nsamples = 7\nvalue = [0, 1, 9]\nclass = virginica", fillcolor="#8f4fe8"] ;
11 -> 12 ;
13 [label="gini = 0.0\nsamples = 5\nvalue = [0, 0, 8]\nclass = virginica", fillcolor="#8139e5"] ;
12 -> 13 ;
14 [label="petal width (cm) <= 1.75\ngini = 0.5\nsamples = 2\nvalue = [0, 1, 1]\nclass = versicolor", fillcolor="#ffffff"] ;
12 -> 14 ;
15 [label="gini = 0.0\nsamples = 1\nvalue = [0, 1, 0]\nclass = versicolor", fillcolor="#39e581"] ;
14 -> 15 ;
16 [label="gini = 0.0\nsamples = 1\nvalue = [0, 0, 1]\nclass = virginica", fillcolor="#8139e5"] ;
14 -> 16 ;
17 [label="gini = 0.0\nsamples = 1\nvalue = [0, 1, 0]\nclass = versicolor", fillcolor="#39e581"] ;
11 -> 17 ;
18 [label="gini = 0.0\nsamples = 23\nvalue = [0, 0, 36]\nclass = virginica", fillcolor="#8139e5"] ;
10 -> 18 ;
}